<?xml version="1.0"?>
<opencv_storage>
<cascade>
  <stageType>BOOST</stageType>
  <featureType>HAAR</featureType>
  <height>24</height>
  <width>32</width>
  <stageParams>
    <boostType>GAB</boostType>
    <minHitRate>9.9500000476837158e-01</minHitRate>
    <maxFalseAlarm>5.0000000000000000e-01</maxFalseAlarm>
    <weightTrimRate>9.4999998807907104e-01</weightTrimRate>
    <maxDepth>1</maxDepth>
    <maxWeakCount>100</maxWeakCount></stageParams>
  <featureParams>
    <maxCatCount>0</maxCatCount>
    <featSize>1</featSize>
    <mode>BASIC</mode></featureParams>
  <stageNum>10</stageNum>
  <stages>
    <!-- stage 0 -->
    <_>
      <maxWeakCount>3</maxWeakCount>
      <stageThreshold>-8.9239287376403809e-01</stageThreshold>
      <weakClassifiers>
        <_>
          <internalNodes>
            0 -1 5 1.2989969924092293e-02</internalNodes>
          <leafValues>
            -9.2818015813827515e-01 9.0013140439987183e-01</leafValues></_>
        <_>
          <internalNodes>
            0 -1 9 1.0772675275802612e-01</internalNodes>
          <leafValues>
            -8.8767278194427490e-01 8.8948822021484375e-01</leafValues></_>
        <_>
          <internalNodes>
            0 -1 23 4.0705218911170959e-02</internalNodes>
          <leafValues>
            -8.5370093584060669e-01 9.5458084344863892e-01</leafValues></_></weakClassifiers></_>
    <!-- stage 1 -->
    <_>
      <maxWeakCount>3</maxWeakCount>
      <stageThreshold>-8.6184293031692505e-01</stageThreshold>
      <weakClassifiers>
        <_>
          <internalNodes>
            0 -1 3 4.9285873770713806e-02</internalNodes>
          <leafValues>
            -8.5507243871688843e-01 9.3519884347915649e-01</leafValues></_>
        <_>
          <internalNodes>
            0 -1 22 -2.5826625525951385e-02</internalNodes>
          <leafValues>
            7.3758327960968018e-01 -8.6488294601440430e-01</leafValues></_>
        <_>
          <internalNodes>
            0 -1 26 4.5047625899314880e-02</internalNodes>
          <leafValues>
            -7.4435371160507202e-01 9.0242946147918701e-01</leafValues></_></weakClassifiers></_>
    <!-- stage 2 -->
    <_>
      <maxWeakCount>2</maxWeakCount>
      <stageThreshold>-2.4175354838371277e-01</stageThreshold>
      <weakClassifiers>
        <_>
          <internalNodes>
            0 -1 18 6.2615866772830486e-03</internalNodes>
          <leafValues>
            -8.9588689804077148e-01 6.5330189466476440e-01</leafValues></_>
        <_>
          <internalNodes>
            0 -1 14 1.3103602454066277e-02</internalNodes>
          <leafValues>
            -8.6753249168395996e-01 6.5413331985473633e-01</leafValues></_></weakClassifiers></_>
    <!-- stage 3 -->
    <_>
      <maxWeakCount>3</maxWeakCount>
      <stageThreshold>-1.1174069643020630e+00</stageThreshold>
      <weakClassifiers>
        <_>
          <internalNodes>
            0 -1 4 1.9192226231098175e-02</internalNodes>
          <leafValues>
            -8.6380368471145630e-01 7.3385012149810791e-01</leafValues></_>
        <_>
          <internalNodes>
            0 -1 21 -4.3865073472261429e-02</internalNodes>
          <leafValues>
            7.1141046285629272e-01 -8.7023228406906128e-01</leafValues></_>
        <_>
          <internalNodes>
            0 -1 10 2.5313191115856171e-02</internalNodes>
          <leafValues>
            -8.1828600168228149e-01 6.1662894487380981e-01</leafValues></_></weakClassifiers></_>
    <!-- stage 4 -->
    <_>
      <maxWeakCount>3</maxWeakCount>
      <stageThreshold>-9.6757179498672485e-01</stageThreshold>
      <weakClassifiers>
        <_>
          <internalNodes>
            0 -1 13 3.8501232862472534e-02</internalNodes>
          <leafValues>
            -7.9631900787353516e-01 5.9173125028610229e-01</leafValues></_>
        <_>
          <internalNodes>
            0 -1 19 3.6621004343032837e-02</internalNodes>
          <leafValues>
            -7.1892780065536499e-01 7.7379083633422852e-01</leafValues></_>
        <_>
          <internalNodes>
            0 -1 11 1.9853230565786362e-02</internalNodes>
          <leafValues>
            -9.4504362344741821e-01 5.7938987016677856e-01</leafValues></_></weakClassifiers></_>
    <!-- stage 5 -->
    <_>
      <maxWeakCount>2</maxWeakCount>
      <stageThreshold>-3.1041833758354187e-01</stageThreshold>
      <weakClassifiers>
        <_>
          <internalNodes>
            0 -1 12 2.4638716131448746e-02</internalNodes>
          <leafValues>
            -9.3718773126602173e-01 4.7158524394035339e-01</leafValues></_>
        <_>
          <internalNodes>
            0 -1 24 5.5809576064348221e-02</internalNodes>
          <leafValues>
            -7.8200358152389526e-01 7.1021008491516113e-01</leafValues></_></weakClassifiers></_>
    <!-- stage 6 -->
    <_>
      <maxWeakCount>3</maxWeakCount>
      <stageThreshold>-7.0906138420104980e-01</stageThreshold>
      <weakClassifiers>
        <_>
          <internalNodes>
            0 -1 2 3.9633721113204956e-02</internalNodes>
          <leafValues>
            -8.9778327941894531e-01 7.9230767488479614e-01</leafValues></_>
        <_>
          <internalNodes>
            0 -1 28 -2.1785430610179901e-02</internalNodes>
          <leafValues>
            9.5664381980895996e-01 -6.7947584390640259e-01</leafValues></_>
        <_>
          <internalNodes>
            0 -1 17 -5.7109808549284935e-03</internalNodes>
          <leafValues>
            8.6819773912429810e-01 -6.0271799564361572e-01</leafValues></_></weakClassifiers></_>
    <!-- stage 7 -->
    <_>
      <maxWeakCount>3</maxWeakCount>
      <stageThreshold>-8.0395680665969849e-01</stageThreshold>
      <weakClassifiers>
        <_>
          <internalNodes>
            0 -1 0 -3.7115968763828278e-02</internalNodes>
          <leafValues>
            9.4377511739730835e-01 -6.8730324506759644e-01</leafValues></_>
        <_>
          <internalNodes>
            0 -1 16 -4.9603000283241272e-02</internalNodes>
          <leafValues>
            5.9925502538681030e-01 -8.1005781888961792e-01</leafValues></_>
        <_>
          <internalNodes>
            0 -1 8 -2.9545716941356659e-02</internalNodes>
          <leafValues>
            7.3306202888488770e-01 -7.1590858697891235e-01</leafValues></_></weakClassifiers></_>
    <!-- stage 8 -->
    <_>
      <maxWeakCount>4</maxWeakCount>
      <stageThreshold>-1.4022094011306763e+00</stageThreshold>
      <weakClassifiers>
        <_>
          <internalNodes>
            0 -1 1 -4.2033296078443527e-02</internalNodes>
          <leafValues>
            9.3927127122879028e-01 -6.8272250890731812e-01</leafValues></_>
        <_>
          <internalNodes>
            0 -1 27 -1.4138540253043175e-02</internalNodes>
          <leafValues>
            7.7901291847229004e-01 -6.9321799278259277e-01</leafValues></_>
        <_>
          <internalNodes>
            0 -1 7 -2.3512460291385651e-02</internalNodes>
          <leafValues>
            8.9747017621994019e-01 -5.3955793380737305e-01</leafValues></_>
        <_>
          <internalNodes>
            0 -1 20 -6.2412687111645937e-04</internalNodes>
          <leafValues>
            -9.7089111804962158e-01 5.1328903436660767e-01</leafValues></_></weakClassifiers></_>
    <!-- stage 9 -->
    <_>
      <maxWeakCount>3</maxWeakCount>
      <stageThreshold>-9.0111446380615234e-01</stageThreshold>
      <weakClassifiers>
        <_>
          <internalNodes>
            0 -1 25 5.0536505877971649e-02</internalNodes>
          <leafValues>
            -8.0844360589981079e-01 5.4222768545150757e-01</leafValues></_>
        <_>
          <internalNodes>
            0 -1 6 2.6783671230077744e-02</internalNodes>
          <leafValues>
            -6.5511566400527954e-01 7.9349577426910400e-01</leafValues></_>
        <_>
          <internalNodes>
            0 -1 15 -1.7314098775386810e-02</internalNodes>
          <leafValues>
            5.6244480609893799e-01 -7.5285106897354126e-01</leafValues></_></weakClassifiers></_></stages>
  <features>
    <_>
      <rects>
        <_>
          0 0 3 19 -1.</_>
        <_>
          1 0 1 19 3.</_></rects>
      <tilted>0</tilted></_>
    <_>
      <rects>
        <_>
          0 0 3 22 -1.</_>
        <_>
          1 0 1 22 3.</_></rects>
      <tilted>0</tilted></_>
    <_>
      <rects>
        <_>
          0 1 4 20 -1.</_>
        <_>
          2 1 2 20 2.</_></rects>
      <tilted>0</tilted></_>
    <_>
      <rects>
        <_>
          0 8 6 13 -1.</_>
        <_>
          2 8 2 13 3.</_></rects>
      <tilted>0</tilted></_>
    <_>
      <rects>
        <_>
          1 2 3 18 -1.</_>
        <_>
          2 2 1 18 3.</_></rects>
      <tilted>0</tilted></_>
    <_>
      <rects>
        <_>
          1 4 3 15 -1.</_>
        <_>
          2 4 1 15 3.</_></rects>
      <tilted>0</tilted></_>
    <_>
      <rects>
        <_>
          1 4 3 17 -1.</_>
        <_>
          2 4 1 17 3.</_></rects>
      <tilted>0</tilted></_>
    <_>
      <rects>
        <_>
          2 3 6 7 -1.</_>
        <_>
          4 3 2 7 3.</_></rects>
      <tilted>0</tilted></_>
    <_>
      <rects>
        <_>
          2 11 8 7 -1.</_>
        <_>
          6 11 4 7 2.</_></rects>
      <tilted>0</tilted></_>
    <_>
      <rects>
        <_>
          2 15 28 9 -1.</_>
        <_>
          2 18 28 3 3.</_></rects>
      <tilted>0</tilted></_>
    <_>
      <rects>
        <_>
          3 0 15 6 -1.</_>
        <_>
          3 2 15 2 3.</_></rects>
      <tilted>0</tilted></_>
    <_>
      <rects>
        <_>
          3 14 24 3 -1.</_>
        <_>
          11 14 8 3 3.</_></rects>
      <tilted>0</tilted></_>
    <_>
      <rects>
        <_>
          4 15 23 6 -1.</_>
        <_>
          4 18 23 3 2.</_></rects>
      <tilted>0</tilted></_>
    <_>
      <rects>
        <_>
          4 17 11 6 -1.</_>
        <_>
          4 19 11 2 3.</_></rects>
      <tilted>0</tilted></_>
    <_>
      <rects>
        <_>
          5 8 22 4 -1.</_>
        <_>
          5 8 11 2 2.</_>
        <_>
          16 10 11 2 2.</_></rects>
      <tilted>0</tilted></_>
    <_>
      <rects>
        <_>
          6 9 9 6 -1.</_>
        <_>
          6 11 9 2 3.</_></rects>
      <tilted>0</tilted></_>
    <_>
      <rects>
        <_>
          9 20 21 4 -1.</_>
        <_>
          9 22 21 2 2.</_></rects>
      <tilted>0</tilted></_>
    <_>
      <rects>
        <_>
          12 11 6 1 -1.</_>
        <_>
          14 11 2 1 3.</_></rects>
      <tilted>0</tilted></_>
    <_>
      <rects>
        <_>
          15 1 11 3 -1.</_>
        <_>
          15 2 11 1 3.</_></rects>
      <tilted>0</tilted></_>
    <_>
      <rects>
        <_>
          17 0 10 6 -1.</_>
        <_>
          17 2 10 2 3.</_></rects>
      <tilted>0</tilted></_>
    <_>
      <rects>
        <_>
          17 11 9 1 -1.</_>
        <_>
          20 11 3 1 3.</_></rects>
      <tilted>0</tilted></_>
    <_>
      <rects>
        <_>
          19 6 9 17 -1.</_>
        <_>
          22 6 3 17 3.</_></rects>
      <tilted>0</tilted></_>
    <_>
      <rects>
        <_>
          21 20 9 4 -1.</_>
        <_>
          21 22 9 2 2.</_></rects>
      <tilted>0</tilted></_>
    <_>
      <rects>
        <_>
          23 0 6 21 -1.</_>
        <_>
          26 0 3 21 2.</_></rects>
      <tilted>0</tilted></_>
    <_>
      <rects>
        <_>
          23 12 9 9 -1.</_>
        <_>
          26 12 3 9 3.</_></rects>
      <tilted>0</tilted></_>
    <_>
      <rects>
        <_>
          25 3 6 16 -1.</_>
        <_>
          27 3 2 16 3.</_></rects>
      <tilted>0</tilted></_>
    <_>
      <rects>
        <_>
          25 5 6 14 -1.</_>
        <_>
          27 5 2 14 3.</_></rects>
      <tilted>0</tilted></_>
    <_>
      <rects>
        <_>
          28 2 4 6 -1.</_>
        <_>
          30 2 2 6 2.</_></rects>
      <tilted>0</tilted></_>
    <_>
      <rects>
        <_>
          29 6 3 17 -1.</_>
        <_>
          30 6 1 17 3.</_></rects>
      <tilted>0</tilted></_></features></cascade>
</opencv_storage>
